<?xml version="1.0"?>
<opencv_storage>
<cascade>
  <stageType>BOOST</stageType>
  <featureType>HAAR</featureType>
  <height>20</height>
  <width>20</width>
  <stageParams>
    <boostType>GAB</boostType>
    <minHitRate>9.9500000476837158e-01</minHitRate>
    <maxFalseAlarm>5.0000000000000000e-01</maxFalseAlarm>
    <weightTrimRate>9.4999999999999996e-01</weightTrimRate>
    <maxDepth>1</maxDepth>
    <maxWeakCount>100</maxWeakCount></stageParams>
  <featureParams>
    <maxCatCount>0</maxCatCount>
    <featSize>1</featSize>
    <mode>BASIC</mode></featureParams>
  <stageNum>17</stageNum>
  <stages>
    <!-- stage 0 -->
    <_>
      <maxWeakCount>2</maxWeakCount>
      <stageThreshold>-1.0297908633947372e-01</stageThreshold>
      <weakClassifiers>
        <_>
          <internalNodes>
            0 -1 9 9.0123444795608521e-02</internalNodes>
          <leafValues>
            -9.4174754619598389e-01 8.9339017868041992e-01</leafValues></_>
        <_>
          <internalNodes>
            0 -1 95 5.6420281529426575e-02</internalNodes>
          <leafValues>
            -7.3765057325363159e-01 8.3876848220825195e-01</leafValues></_></weakClassifiers></_>
    <!-- stage 1 -->
    <_>
      <maxWeakCount>6</maxWeakCount>
      <stageThreshold>-7.1705079078674316e-01</stageThreshold>
      <weakClassifiers>
        <_>
          <internalNodes>
            0 -1 15 6.0990236699581146e-02</internalNodes>
          <leafValues>
            -6.3333332538604736e-01 8.6666667461395264e-01</leafValues></_>
        <_>
          <internalNodes>
            0 -1 120 2.6430466677993536e-03</internalNodes>
          <leafValues>
            -7.7317315340042114e-01 5.6729048490524292e-01</leafValues></_>
        <_>
          <internalNodes>
            0 -1 57 1.5312305092811584e-01</internalNodes>
          <leafValues>
            -5.8937227725982666e-01 5.8824354410171509e-01</leafValues></_>
        <_>
          <internalNodes>
            0 -1 137 4.9655991606414318e-03</internalNodes>
          <leafValues>
            -4.6290010213851929e-01 6.8939328193664551e-01</leafValues></_>
        <_>
          <internalNodes>
            0 -1 70 1.0216182470321655e-01</internalNodes>
          <leafValues>
            -2.2054074704647064e-01 9.3449980020523071e-01</leafValues></_>
        <_>
          <internalNodes>
            0 -1 63 4.1131027042865753e-02</internalNodes>
          <leafValues>
            -3.7038749456405640e-01 8.7801849842071533e-01</leafValues></_></weakClassifiers></_>
    <!-- stage 2 -->
    <_>
      <maxWeakCount>9</maxWeakCount>
      <stageThreshold>-1.3063008785247803e+00</stageThreshold>
      <weakClassifiers>
        <_>
          <internalNodes>
            0 -1 15 7.9275682568550110e-02</internalNodes>
          <leafValues>
            -3.3333334326744080e-01 8.4313726425170898e-01</leafValues></_>
        <_>
          <internalNodes>
            0 -1 52 1.0681623592972755e-02</internalNodes>
          <leafValues>
            -8.0238687992095947e-01 4.0242305397987366e-01</leafValues></_>
        <_>
          <internalNodes>
            0 -1 76 4.9395889043807983e-02</internalNodes>
          <leafValues>
            -3.2950896024703979e-01 7.5474643707275391e-01</leafValues></_>
        <_>
          <internalNodes>
            0 -1 33 6.0321033000946045e-02</internalNodes>
          <leafValues>
            -4.1697463393211365e-01 7.6524281501770020e-01</leafValues></_>
        <_>
          <internalNodes>
            0 -1 141 2.5282199494540691e-03</internalNodes>
          <leafValues>
            -4.8676395416259766e-01 4.3574413657188416e-01</leafValues></_>
        <_>
          <internalNodes>
            0 -1 45 -2.2383939940482378e-03</internalNodes>
          <leafValues>
            2.3062720894813538e-01 -8.3942919969558716e-01</leafValues></_>
        <_>
          <internalNodes>
            0 -1 70 1.1910209804773331e-01</internalNodes>
          <leafValues>
            -2.4716806411743164e-01 8.6888092756271362e-01</leafValues></_>
        <_>
          <internalNodes>
            0 -1 69 -4.0667336434125900e-02</internalNodes>
          <leafValues>
            8.0720150470733643e-01 -2.9783964157104492e-01</leafValues></_>
        <_>
          <internalNodes>
            0 -1 27 6.2436824664473534e-03</internalNodes>
          <leafValues>
            -3.6653774976730347e-01 4.5453920960426331e-01</leafValues></_></weakClassifiers></_>
    <!-- stage 3 -->
    <_>
      <maxWeakCount>9</maxWeakCount>
      <stageThreshold>-1.0181685686111450e+00</stageThreshold>
      <weakClassifiers>
        <_>
          <internalNodes>
            0 -1 50 2.8079370968043804e-03</internalNodes>
          <leafValues>
            -6.9429099559783936e-01 5.9202593564987183e-01</leafValues></_>
        <_>
          <internalNodes>
            0 -1 57 1.9370551407337189e-01</internalNodes>
          <leafValues>
            -4.5427829027175903e-01 6.4384377002716064e-01</leafValues></_>
        <_>
          <internalNodes>
            0 -1 124 1.8328473670408130e-03</internalNodes>
          <leafValues>
            -6.6460865736007690e-01 3.7634095549583435e-01</leafValues></_>
        <_>
          <internalNodes>
            0 -1 77 6.6312432289123535e-02</internalNodes>
          <leafValues>
            -2.7619799971580505e-01 7.6157182455062866e-01</leafValues></_>
        <_>
          <internalNodes>
            0 -1 84 -3.2610632479190826e-02</internalNodes>
          <leafValues>
            7.2444367408752441e-01 -3.9040088653564453e-01</leafValues></_>
        <_>
          <internalNodes>
            0 -1 104 -6.0469709569588304e-04</internalNodes>
          <leafValues>
            -9.2233675718307495e-01 3.0365899205207825e-01</leafValues></_>
        <_>
          <internalNodes>
            0 -1 13 2.8584867250174284e-03</internalNodes>
          <leafValues>
            -3.5345247387886047e-01 5.7230764627456665e-01</leafValues></_>
        <_>
          <internalNodes>
            0 -1 144 3.3986833877861500e-03</internalNodes>
          <leafValues>
            -4.0089520812034607e-01 4.1282767057418823e-01</leafValues></_>
        <_>
          <internalNodes>
            0 -1 129 -7.4088461697101593e-03</internalNodes>
          <leafValues>
            1.7281392216682434e-01 -8.8513058423995972e-01</leafValues></_></weakClassifiers></_>
    <!-- stage 4 -->
    <_>
      <maxWeakCount>8</maxWeakCount>
      <stageThreshold>-1.5112478733062744e+00</stageThreshold>
      <weakClassifiers>
        <_>
          <internalNodes>
            0 -1 46 9.2443833127617836e-03</internalNodes>
          <leafValues>
            -3.0640393495559692e-01 7.1869438886642456e-01</leafValues></_>
        <_>
          <internalNodes>
            0 -1 53 9.8533695563673973e-03</internalNodes>
          <leafValues>
            -4.7304448485374451e-01 5.2154392004013062e-01</leafValues></_>
        <_>
          <internalNodes>
            0 -1 57 1.3600060343742371e-01</internalNodes>
          <leafValues>
            -6.6692429780960083e-01 3.1054100394248962e-01</leafValues></_>
        <_>
          <internalNodes>
            0 -1 139 4.4187847524881363e-03</internalNodes>
          <leafValues>
            -4.0852215886116028e-01 5.0430876016616821e-01</leafValues></_>
        <_>
          <internalNodes>
            0 -1 115 3.6103632301092148e-03</internalNodes>
          <leafValues>
            -7.4613291025161743e-01 2.3680475354194641e-01</leafValues></_>
        <_>
          <internalNodes>
            0 -1 44 6.3625897746533155e-04</internalNodes>
          <leafValues>
            -7.5272476673126221e-01 1.9794039428234100e-01</leafValues></_>
        <_>
          <internalNodes>
            0 -1 85 -8.4838407929055393e-05</internalNodes>
          <leafValues>
            -9.5856040716171265e-01 1.1881099641323090e-01</leafValues></_>
        <_>
          <internalNodes>
            0 -1 106 3.7812802940607071e-02</internalNodes>
          <leafValues>
            -2.7886995673179626e-01 7.9279202222824097e-01</leafValues></_></weakClassifiers></_>
    <!-- stage 5 -->
    <_>
      <maxWeakCount>7</maxWeakCount>
      <stageThreshold>-1.0399920940399170e+00</stageThreshold>
      <weakClassifiers>
        <_>
          <internalNodes>
            0 -1 108 2.1135972929187119e-04</internalNodes>
          <leafValues>
            5.8840578794479370e-01 -5.0476193428039551e-01</leafValues></_>
        <_>
          <internalNodes>
            0 -1 68 3.1367644667625427e-02</internalNodes>
          <leafValues>
            -6.2457776069641113e-01 3.4511408209800720e-01</leafValues></_>
        <_>
          <internalNodes>
            0 -1 149 -6.1167636886239052e-03</internalNodes>
          <leafValues>
            5.1232045888900757e-01 -3.3389124274253845e-01</leafValues></_>
        <_>
          <internalNodes>
            0 -1 109 -1.5018798876553774e-04</internalNodes>
          <leafValues>
            -9.4008141756057739e-01 1.8193274736404419e-01</leafValues></_>
        <_>
          <internalNodes>
            0 -1 64 1.2331212311983109e-01</internalNodes>
          <leafValues>
            -3.2202580571174622e-01 5.8831071853637695e-01</leafValues></_>
        <_>
          <internalNodes>
            0 -1 60 1.2893787026405334e-01</internalNodes>
          <leafValues>
            -3.1326976418495178e-01 8.4604054689407349e-01</leafValues></_>
        <_>
          <internalNodes>
            0 -1 91 -3.9239764213562012e-02</internalNodes>
          <leafValues>
            6.6817468404769897e-01 -2.1656604111194611e-01</leafValues></_></weakClassifiers></_>
    <!-- stage 6 -->
    <_>
      <maxWeakCount>11</maxWeakCount>
      <stageThreshold>-1.1084493398666382e+00</stageThreshold>
      <weakClassifiers>
        <_>
          <internalNodes>
            0 -1 117 6.5346509218215942e-03</internalNodes>
          <leafValues>
            -5.5871886014938354e-01 5.6782037019729614e-01</leafValues></_>
        <_>
          <internalNodes>
            0 -1 121 4.1840774938464165e-03</internalNodes>
          <leafValues>
            -5.4698276519775391e-01 4.0543285012245178e-01</leafValues></_>
        <_>
          <internalNodes>
            0 -1 112 1.8294545589014888e-04</internalNodes>
          <leafValues>
            2.7980268001556396e-01 -6.5048104524612427e-01</leafValues></_>
        <_>
          <internalNodes>
            0 -1 8 4.2328625917434692e-02</internalNodes>
          <leafValues>
            -8.3124268054962158e-01 1.4018528163433075e-01</leafValues></_>
        <_>
          <internalNodes>
            0 -1 19 9.0255765244364738e-03</internalNodes>
          <leafValues>
            -4.8034018278121948e-01 3.0533355474472046e-01</leafValues></_>
        <_>
          <internalNodes>
            0 -1 141 2.6584090664982796e-03</internalNodes>
          <leafValues>
            -4.6725881099700928e-01 2.7352741360664368e-01</leafValues></_>
        <_>
          <internalNodes>
            0 -1 131 1.5992755070328712e-03</internalNodes>
          <leafValues>
            -3.4671103954315186e-01 3.6167812347412109e-01</leafValues></_>
        <_>
          <internalNodes>
            0 -1 61 5.4911904036998749e-02</internalNodes>
          <leafValues>
            -2.1753564476966858e-01 7.8869694471359253e-01</leafValues></_>
        <_>
          <internalNodes>
            0 -1 112 -1.0512232547625899e-03</internalNodes>
          <leafValues>
            -7.6851385831832886e-01 2.1070753037929535e-01</leafValues></_>
        <_>
          <internalNodes>
            0 -1 80 5.3602777188643813e-04</internalNodes>
          <leafValues>
            -7.6228499412536621e-01 1.5606985986232758e-01</leafValues></_>
        <_>
          <internalNodes>
            0 -1 81 5.4687559604644775e-02</internalNodes>
          <leafValues>
            -2.0762558281421661e-01 7.0643001794815063e-01</leafValues></_></weakClassifiers></_>
    <!-- stage 7 -->
    <_>
      <maxWeakCount>11</maxWeakCount>
      <stageThreshold>-9.8210430145263672e-01</stageThreshold>
      <weakClassifiers>
        <_>
          <internalNodes>
            0 -1 44 2.7164821512997150e-03</internalNodes>
          <leafValues>
            -4.9920254945755005e-01 5.8514231443405151e-01</leafValues></_>
        <_>
          <internalNodes>
            0 -1 97 3.8537286221981049e-02</internalNodes>
          <leafValues>
            -2.5426164269447327e-01 5.8980810642242432e-01</leafValues></_>
        <_>
          <internalNodes>
            0 -1 126 3.6575281992554665e-03</internalNodes>
          <leafValues>
            -5.7506817579269409e-01 3.9074254035949707e-01</leafValues></_>
        <_>
          <internalNodes>
            0 -1 125 -4.3216757476329803e-03</internalNodes>
          <leafValues>
            1.7805764079093933e-01 -7.1676224470138550e-01</leafValues></_>
        <_>
          <internalNodes>
            0 -1 54 1.0012838989496231e-02</internalNodes>
          <leafValues>
            -2.9326781630516052e-01 4.6460625529289246e-01</leafValues></_>
        <_>
          <internalNodes>
            0 -1 3 5.2946329116821289e-02</internalNodes>
          <leafValues>
            -2.9784989356994629e-01 6.5359067916870117e-01</leafValues></_>
        <_>
          <internalNodes>
            0 -1 151 -1.9606496207416058e-03</internalNodes>
          <leafValues>
            3.8226646184921265e-01 -3.4267166256904602e-01</leafValues></_>
        <_>
          <internalNodes>
            0 -1 110 -1.5528695657849312e-03</internalNodes>
          <leafValues>
            -8.1618934869766235e-01 1.7258326709270477e-01</leafValues></_>
        <_>
          <internalNodes>
            0 -1 67 7.0747032761573792e-02</internalNodes>
          <leafValues>
            -2.5076115131378174e-01 6.3709342479705811e-01</leafValues></_>
        <_>
          <internalNodes>
            0 -1 35 8.0825528129935265e-03</internalNodes>
          <leafValues>
            -3.9603489637374878e-01 3.2201844453811646e-01</leafValues></_>
        <_>
          <internalNodes>
            0 -1 36 2.6504171546548605e-03</internalNodes>
          <leafValues>
            1.1652223765850067e-01 -8.5989624261856079e-01</leafValues></_></weakClassifiers></_>
    <!-- stage 8 -->
    <_>
      <maxWeakCount>9</maxWeakCount>
      <stageThreshold>-7.4919068813323975e-01</stageThreshold>
      <weakClassifiers>
        <_>
          <internalNodes>
            0 -1 124 2.6733686681836843e-03</internalNodes>
          <leafValues>
            -3.5207101702690125e-01 5.6225293874740601e-01</leafValues></_>
        <_>
          <internalNodes>
            0 -1 26 7.5911665335297585e-03</internalNodes>
          <leafValues>
            -4.8302322626113892e-01 3.9915162324905396e-01</leafValues></_>
        <_>
          <internalNodes>
            0 -1 123 1.1613677634159103e-04</internalNodes>
          <leafValues>
            2.0622929930686951e-01 -7.9763174057006836e-01</leafValues></_>
        <_>
          <internalNodes>
            0 -1 4 -3.8557392545044422e-03</internalNodes>
          <leafValues>
            4.9733179807662964e-01 -3.4466621279716492e-01</leafValues></_>
        <_>
          <internalNodes>
            0 -1 146 -3.3004541182890534e-04</internalNodes>
          <leafValues>
            -5.3452634811401367e-01 2.5720351934432983e-01</leafValues></_>
        <_>
          <internalNodes>
            0 -1 42 9.2496395111083984e-02</internalNodes>
          <leafValues>
            -2.1616721153259277e-01 5.9621739387512207e-01</leafValues></_>
        <_>
          <internalNodes>
            0 -1 88 9.0485177934169769e-03</internalNodes>
          <leafValues>
            -2.8067812323570251e-01 4.9656665325164795e-01</leafValues></_>
        <_>
          <internalNodes>
            0 -1 142 2.8725063893944025e-03</internalNodes>
          <leafValues>
            1.2701883912086487e-01 -7.8997403383255005e-01</leafValues></_>
        <_>
          <internalNodes>
            0 -1 118 3.4156981855630875e-03</internalNodes>
          <leafValues>
            -3.6271730065345764e-01 3.3696347475051880e-01</leafValues></_></weakClassifiers></_>
    <!-- stage 9 -->
    <_>
      <maxWeakCount>11</maxWeakCount>
      <stageThreshold>-6.9317299127578735e-01</stageThreshold>
      <weakClassifiers>
        <_>
          <internalNodes>
            0 -1 71 -6.3488677144050598e-02</internalNodes>
          <leafValues>
            4.8930597305297852e-01 -5.4034227132797241e-01</leafValues></_>
        <_>
          <internalNodes>
            0 -1 143 1.1714878492057323e-03</internalNodes>
          <leafValues>
            -4.7810572385787964e-01 3.5305467247962952e-01</leafValues></_>
        <_>
          <internalNodes>
            0 -1 121 3.1943696085363626e-03</internalNodes>
          <leafValues>
            -6.0102832317352295e-01 2.8437486290931702e-01</leafValues></_>
        <_>
          <internalNodes>
            0 -1 70 1.3504791259765625e-01</internalNodes>
          <leafValues>
            -2.2566860914230347e-01 6.5897768735885620e-01</leafValues></_>
        <_>
          <internalNodes>
            0 -1 49 1.2898184359073639e-03</internalNodes>
          <leafValues>
            -5.5678409337997437e-01 2.9230383038520813e-01</leafValues></_>
        <_>
          <internalNodes>
            0 -1 78 -9.5242241513915360e-05</internalNodes>
          <leafValues>
            -8.0900877714157104e-01 1.4979325234889984e-01</leafValues></_>
        <_>
          <internalNodes>
            0 -1 79 5.1671452820301056e-03</internalNodes>
          <leafValues>
            8.8856503367424011e-02 -8.5685628652572632e-01</leafValues></_>
        <_>
          <internalNodes>
            0 -1 86 -1.5205678937491030e-04</internalNodes>
          <leafValues>
            -9.7085475921630859e-01 8.8631615042686462e-02</leafValues></_>
        <_>
          <internalNodes>
            0 -1 96 8.5265450179576874e-03</internalNodes>
          <leafValues>
            -2.2528146207332611e-01 6.4041638374328613e-01</leafValues></_>
        <_>
          <internalNodes>
            0 -1 83 6.0619879513978958e-03</internalNodes>
          <leafValues>
            -5.4361665248870850e-01 3.3596074581146240e-01</leafValues></_>
        <_>
          <internalNodes>
            0 -1 14 3.4135947935283184e-03</internalNodes>
          <leafValues>
            -2.9188078641891479e-01 4.1588169336318970e-01</leafValues></_></weakClassifiers></_>
    <!-- stage 10 -->
    <_>
      <maxWeakCount>14</maxWeakCount>
      <stageThreshold>-1.0189822912216187e+00</stageThreshold>
      <weakClassifiers>
        <_>
          <internalNodes>
            0 -1 120 3.1830880325287580e-03</internalNodes>
          <leafValues>
            -7.3913043737411499e-01 4.4421741366386414e-01</leafValues></_>
        <_>
          <internalNodes>
            0 -1 21 9.1586762573570013e-04</internalNodes>
          <leafValues>
            -4.7861531376838684e-01 3.0965656042098999e-01</leafValues></_>
        <_>
          <internalNodes>
            0 -1 43 7.2330487892031670e-03</internalNodes>
          <leafValues>
            -6.6970884799957275e-01 1.6931389272212982e-01</leafValues></_>
        <_>
          <internalNodes>
            0 -1 1 -3.7377416156232357e-03</internalNodes>
          <leafValues>
            4.5268866419792175e-01 -2.7870854735374451e-01</leafValues></_>
        <_>
          <internalNodes>
            0 -1 127 1.2825027806684375e-04</internalNodes>
          <leafValues>
            1.0531248897314072e-01 -9.3074768781661987e-01</leafValues></_>
        <_>
          <internalNodes>
            0 -1 87 -5.2344631403684616e-03</internalNodes>
          <leafValues>
            -7.7192032337188721e-01 1.2007319927215576e-01</leafValues></_>
        <_>
          <internalNodes>
            0 -1 17 -2.6766094379127026e-03</internalNodes>
          <leafValues>
            3.7791988253593445e-01 -2.9141533374786377e-01</leafValues></_>
        <_>
          <internalNodes>
            0 -1 47 -4.8524044454097748e-02</internalNodes>
          <leafValues>
            6.1376762390136719e-01 -1.8308953940868378e-01</leafValues></_>
        <_>
          <internalNodes>
            0 -1 66 5.9629924595355988e-02</internalNodes>
          <leafValues>
            -3.4779843688011169e-01 5.3122568130493164e-01</leafValues></_>
        <_>
          <internalNodes>
            0 -1 112 1.9012755365110934e-04</internalNodes>
          <leafValues>
            2.3185482621192932e-01 -5.8787089586257935e-01</leafValues></_>
        <_>
          <internalNodes>
            0 -1 6 -3.8797925226390362e-03</internalNodes>
          <leafValues>
            4.5400637388229370e-01 -2.5892728567123413e-01</leafValues></_>
        <_>
          <internalNodes>
            0 -1 143 1.9213152118027210e-03</internalNodes>
          <leafValues>
            -3.4450805187225342e-01 3.0042758584022522e-01</leafValues></_>
        <_>
          <internalNodes>
            0 -1 72 5.1596620323834941e-05</internalNodes>
          <leafValues>
            -6.3137996196746826e-01 1.5960349142551422e-01</leafValues></_>
        <_>
          <internalNodes>
            0 -1 130 1.5283538028597832e-02</internalNodes>
          <leafValues>
            -2.2531747817993164e-01 4.4899636507034302e-01</leafValues></_></weakClassifiers></_>
    <!-- stage 11 -->
    <_>
      <maxWeakCount>15</maxWeakCount>
      <stageThreshold>-8.7177830934524536e-01</stageThreshold>
      <weakClassifiers>
        <_>
          <internalNodes>
            0 -1 105 2.2088491823524237e-04</internalNodes>
          <leafValues>
            -7.6095616817474365e-01 4.4548794627189636e-01</leafValues></_>
        <_>
          <internalNodes>
            0 -1 117 8.5136815905570984e-03</internalNodes>
          <leafValues>
            -5.2165907621383667e-01 2.9474923014640808e-01</leafValues></_>
        <_>
          <internalNodes>
            0 -1 128 1.6731403768062592e-02</internalNodes>
          <leafValues>
            -7.9268825054168701e-01 9.2118248343467712e-02</leafValues></_>
        <_>
          <internalNodes>
            0 -1 116 1.9086053362116218e-04</internalNodes>
          <leafValues>
            2.0277336239814758e-01 -5.4849141836166382e-01</leafValues></_>
        <_>
          <internalNodes>
            0 -1 93 3.6223949864506721e-03</internalNodes>
          <leafValues>
            -1.8622323870658875e-01 6.8946516513824463e-01</leafValues></_>
        <_>
          <internalNodes>
            0 -1 73 1.9104469567537308e-02</internalNodes>
          <leafValues>
            -2.4446977674961090e-01 5.5790412425994873e-01</leafValues></_>
        <_>
          <internalNodes>
            0 -1 23 1.0170637629926205e-02</internalNodes>
          <leafValues>
            -2.5439429283142090e-01 5.1657974720001221e-01</leafValues></_>
        <_>
          <internalNodes>
            0 -1 140 4.1509277070872486e-04</internalNodes>
          <leafValues>
            -4.8990929126739502e-01 2.6053455471992493e-01</leafValues></_>
        <_>
          <internalNodes>
            0 -1 39 -5.3809192031621933e-03</internalNodes>
          <leafValues>
            4.7043600678443909e-01 -2.5293901562690735e-01</leafValues></_>
        <_>
          <internalNodes>
            0 -1 132 1.1245314031839371e-02</internalNodes>
          <leafValues>
            1.7662863433361053e-01 -7.3485434055328369e-01</leafValues></_>
        <_>
          <internalNodes>
            0 -1 148 -8.3493499550968409e-04</internalNodes>
          <leafValues>
            -6.5045368671417236e-01 1.1956258863210678e-01</leafValues></_>
        <_>
          <internalNodes>
            0 -1 105 5.8266827836632729e-03</internalNodes>
          <leafValues>
            1.3133855164051056e-01 -6.8218231201171875e-01</leafValues></_>
        <_>
          <internalNodes>
            0 -1 148 2.5736794341355562e-03</internalNodes>
          <leafValues>
            1.0749164968729019e-01 -8.3674550056457520e-01</leafValues></_>
        <_>
          <internalNodes>
            0 -1 122 4.4025853276252747e-03</internalNodes>
          <leafValues>
            -3.9286714792251587e-01 2.2747689485549927e-01</leafValues></_>
        <_>
          <internalNodes>
            0 -1 81 6.5572962164878845e-02</internalNodes>
          <leafValues>
            -1.6286996006965637e-01 8.0747830867767334e-01</leafValues></_></weakClassifiers></_>
    <!-- stage 12 -->
    <_>
      <maxWeakCount>14</maxWeakCount>
      <stageThreshold>-8.7094020843505859e-01</stageThreshold>
      <weakClassifiers>
        <_>
          <internalNodes>
            0 -1 51 2.7849001344293356e-03</internalNodes>
          <leafValues>
            -2.4512535333633423e-01 5.4288595914840698e-01</leafValues></_>
        <_>
          <internalNodes>
            0 -1 152 -4.5400289818644524e-03</internalNodes>
          <leafValues>
            4.3437528610229492e-01 -2.5422832369804382e-01</leafValues></_>
        <_>
          <internalNodes>
            0 -1 7 -6.4645923674106598e-02</internalNodes>
          <leafValues>
            -8.8258939981460571e-01 1.4128400385379791e-01</leafValues></_>
        <_>
          <internalNodes>
            0 -1 11 5.2542332559823990e-03</internalNodes>
          <leafValues>
            -2.0899441838264465e-01 5.4335343837738037e-01</leafValues></_>
        <_>
          <internalNodes>
            0 -1 80 9.2448573559522629e-04</internalNodes>
          <leafValues>
            -7.0140856504440308e-01 1.2891738116741180e-01</leafValues></_>
        <_>
          <internalNodes>
            0 -1 113 -2.0364914089441299e-03</internalNodes>
          <leafValues>
            5.4542577266693115e-01 -1.9650731980800629e-01</leafValues></_>
        <_>
          <internalNodes>
            0 -1 46 9.6640400588512421e-03</internalNodes>
          <leafValues>
            -5.0135654211044312e-01 2.8532531857490540e-01</leafValues></_>
        <_>
          <internalNodes>
            0 -1 34 2.7626473456621170e-03</internalNodes>
          <leafValues>
            1.1308104544878006e-01 -8.1807821989059448e-01</leafValues></_>
        <_>
          <internalNodes>
            0 -1 81 7.4281856417655945e-02</internalNodes>
          <leafValues>
            -1.3911522924900055e-01 8.4900414943695068e-01</leafValues></_>
        <_>
          <internalNodes>
            0 -1 124 1.7725258367136121e-03</internalNodes>
          <leafValues>
            -6.8553996086120605e-01 1.8001793324947357e-01</leafValues></_>
        <_>
          <internalNodes>
            0 -1 22 -1.6655831132084131e-03</internalNodes>
          <leafValues>
            -6.7866939306259155e-01 1.3848589360713959e-01</leafValues></_>
        <_>
          <internalNodes>
            0 -1 104 -7.7977005275897682e-05</internalNodes>
          <leafValues>
            -9.3845862150192261e-01 8.9598290622234344e-02</leafValues></_>
        <_>
          <internalNodes>
            0 -1 147 -2.1414239890873432e-03</internalNodes>
          <leafValues>
            4.1775950789451599e-01 -2.5177794694900513e-01</leafValues></_>
        <_>
          <internalNodes>
            0 -1 102 2.5554725434631109e-03</internalNodes>
          <leafValues>
            2.1232692897319794e-01 -4.5047116279602051e-01</leafValues></_></weakClassifiers></_>
    <!-- stage 13 -->
    <_>
      <maxWeakCount>14</maxWeakCount>
      <stageThreshold>-9.1634583473205566e-01</stageThreshold>
      <weakClassifiers>
        <_>
          <internalNodes>
            0 -1 28 9.9301654845476151e-03</internalNodes>
          <leafValues>
            -1.4950166642665863e-01 5.7595992088317871e-01</leafValues></_>
        <_>
          <internalNodes>
            0 -1 138 1.4672344550490379e-03</internalNodes>
          <leafValues>
            -3.8164457678794861e-01 3.8650673627853394e-01</leafValues></_>
        <_>
          <internalNodes>
            0 -1 65 1.7997454851865768e-02</internalNodes>
          <leafValues>
            -1.6589051485061646e-01 6.2874287366867065e-01</leafValues></_>
        <_>
          <internalNodes>
            0 -1 75 4.0049705654382706e-02</internalNodes>
          <leafValues>
            -3.8927474617958069e-01 4.3008545041084290e-01</leafValues></_>
        <_>
          <internalNodes>
            0 -1 25 9.8197031766176224e-03</internalNodes>
          <leafValues>
            -4.2008635401725769e-01 2.8248333930969238e-01</leafValues></_>
        <_>
          <internalNodes>
            0 -1 90 -8.4957536309957504e-03</internalNodes>
          <leafValues>
            -8.3563965559005737e-01 1.2821877002716064e-01</leafValues></_>
        <_>
          <internalNodes>
            0 -1 111 6.2746857292950153e-04</internalNodes>
          <leafValues>
            1.3553860783576965e-01 -5.9773641824722290e-01</leafValues></_>
        <_>
          <internalNodes>
            0 -1 38 7.3961936868727207e-04</internalNodes>
          <leafValues>
            -3.0303296446800232e-01 3.6705410480499268e-01</leafValues></_>
        <_>
          <internalNodes>
            0 -1 24 4.6709300950169563e-03</internalNodes>
          <leafValues>
            1.5765365958213806e-01 -9.1252404451370239e-01</leafValues></_>
        <_>
          <internalNodes>
            0 -1 58 -3.4274659119546413e-03</internalNodes>
          <leafValues>
            3.7917909026145935e-01 -2.5844508409500122e-01</leafValues></_>
        <_>
          <internalNodes>
            0 -1 98 7.8842351213097572e-03</internalNodes>
          <leafValues>
            -2.1114379167556763e-01 4.9268388748168945e-01</leafValues></_>
        <_>
          <internalNodes>
            0 -1 56 2.3533001542091370e-02</internalNodes>
          <leafValues>
            -1.2435549497604370e-01 6.2396764755249023e-01</leafValues></_>
        <_>
          <internalNodes>
            0 -1 31 2.0167037844657898e-01</internalNodes>
          <leafValues>
            -4.4018104672431946e-01 2.2773216664791107e-01</leafValues></_>
        <_>
          <internalNodes>
            0 -1 94 -3.4079030156135559e-03</internalNodes>
          <leafValues>
            -7.3695290088653564e-01 1.1985205113887787e-01</leafValues></_></weakClassifiers></_>
    <!-- stage 14 -->
    <_>
      <maxWeakCount>16</maxWeakCount>
      <stageThreshold>-8.2499063014984131e-01</stageThreshold>
      <weakClassifiers>
        <_>
          <internalNodes>
            0 -1 50 3.5983980633318424e-03</internalNodes>
          <leafValues>
            -5.1627904176712036e-01 4.9427312612533569e-01</leafValues></_>
        <_>
          <internalNodes>
            0 -1 11 2.8197024948894978e-03</internalNodes>
          <leafValues>
            -2.6758894324302673e-01 4.6109753847122192e-01</leafValues></_>
        <_>
          <internalNodes>
            0 -1 152 -3.4505859948694706e-03</internalNodes>
          <leafValues>
            3.0885767936706543e-01 -3.0308723449707031e-01</leafValues></_>
        <_>
          <internalNodes>
            0 -1 89 1.9399821758270264e-03</internalNodes>
          <leafValues>
            1.4942601323127747e-01 -6.2695187330245972e-01</leafValues></_>
        <_>
          <internalNodes>
            0 -1 16 -5.2959257736802101e-03</internalNodes>
          <leafValues>
            5.9948378801345825e-01 -1.6340960562229156e-01</leafValues></_>
        <_>
          <internalNodes>
            0 -1 103 1.1768598051276058e-04</internalNodes>
          <leafValues>
            2.3089891672134399e-01 -4.1020238399505615e-01</leafValues></_>
        <_>
          <internalNodes>
            0 -1 108 -2.6159570552408695e-04</internalNodes>
          <leafValues>
            -4.9124413728713989e-01 2.5246748328208923e-01</leafValues></_>
        <_>
          <internalNodes>
            0 -1 74 -2.1984083577990532e-02</internalNodes>
          <leafValues>
            7.7501398324966431e-01 -1.7552441358566284e-01</leafValues></_>
        <_>
          <internalNodes>
            0 -1 55 1.8617190420627594e-02</internalNodes>
          <leafValues>
            -2.7833238244056702e-01 4.2329138517379761e-01</leafValues></_>
        <_>
          <internalNodes>
            0 -1 133 3.8750763051211834e-03</internalNodes>
          <leafValues>
            -2.0031337440013885e-01 4.9366530776023865e-01</leafValues></_>
        <_>
          <internalNodes>
            0 -1 54 8.1336395815014839e-03</internalNodes>
          <leafValues>
            -2.9953667521476746e-01 3.7048393487930298e-01</leafValues></_>
        <_>
          <internalNodes>
            0 -1 81 -4.1048102080821991e-02</internalNodes>
          <leafValues>
            5.4813867807388306e-01 -1.9885259866714478e-01</leafValues></_>
        <_>
          <internalNodes>
            0 -1 40 5.6267697364091873e-03</internalNodes>
          <leafValues>
            -1.6260853409767151e-01 5.9445297718048096e-01</leafValues></_>
        <_>
          <internalNodes>
            0 -1 150 -3.4736448433250189e-03</internalNodes>
          <leafValues>
            -8.3241873979568481e-01 1.4064414799213409e-01</leafValues></_>
        <_>
          <internalNodes>
            0 -1 32 5.7789053767919540e-02</internalNodes>
          <leafValues>
            9.1601543128490448e-02 -7.4065375328063965e-01</leafValues></_>
        <_>
          <internalNodes>
            0 -1 114 2.6012424496002495e-04</internalNodes>
          <leafValues>
            -3.1350317597389221e-01 3.0939391255378723e-01</leafValues></_></weakClassifiers></_>
    <!-- stage 15 -->
    <_>
      <maxWeakCount>17</maxWeakCount>
      <stageThreshold>-8.4283649921417236e-01</stageThreshold>
      <weakClassifiers>
        <_>
          <internalNodes>
            0 -1 37 4.4742887839674950e-03</internalNodes>
          <leafValues>
            -5.6770831346511841e-01 4.8272883892059326e-01</leafValues></_>
        <_>
          <internalNodes>
            0 -1 103 -8.6286701844073832e-05</internalNodes>
          <leafValues>
            -4.9274858832359314e-01 2.6994773745536804e-01</leafValues></_>
        <_>
          <internalNodes>
            0 -1 20 -1.2525010388344526e-03</internalNodes>
          <leafValues>
            -4.7373798489570618e-01 2.8571429848670959e-01</leafValues></_>
        <_>
          <internalNodes>
            0 -1 49 1.8194911535829306e-03</internalNodes>
          <leafValues>
            -4.0519291162490845e-01 2.6214709877967834e-01</leafValues></_>
        <_>
          <internalNodes>
            0 -1 59 -1.9077740609645844e-02</internalNodes>
          <leafValues>
            7.0090144872665405e-01 -1.8245245516300201e-01</leafValues></_>
        <_>
          <internalNodes>
            0 -1 99 4.6905759721994400e-02</internalNodes>
          <leafValues>
            -3.5537064075469971e-01 4.5409715175628662e-01</leafValues></_>
        <_>
          <internalNodes>
            0 -1 134 -5.4609747603535652e-03</internalNodes>
          <leafValues>
            3.9729794859886169e-01 -3.2074940204620361e-01</leafValues></_>
        <_>
          <internalNodes>
            0 -1 135 1.9609509035944939e-03</internalNodes>
          <leafValues>
            -2.7307957410812378e-01 5.3743803501129150e-01</leafValues></_>
        <_>
          <internalNodes>
            0 -1 136 -2.2333487868309021e-03</internalNodes>
          <leafValues>
            6.7636001110076904e-01 -1.5138532221317291e-01</leafValues></_>
        <_>
          <internalNodes>
            0 -1 2 -1.7822224181145430e-03</internalNodes>
          <leafValues>
            4.5268750190734863e-01 -2.5342270731925964e-01</leafValues></_>
        <_>
          <internalNodes>
            0 -1 30 -1.0547991842031479e-02</internalNodes>
          <leafValues>
            6.3679820299148560e-01 -1.7459838092327118e-01</leafValues></_>
        <_>
          <internalNodes>
            0 -1 119 8.7797896412666887e-05</internalNodes>
          <leafValues>
            2.0750623941421509e-01 -6.4565116167068481e-01</leafValues></_>
        <_>
          <internalNodes>
            0 -1 18 -4.4321855530142784e-03</internalNodes>
          <leafValues>
            6.4166319370269775e-01 -1.9830591976642609e-01</leafValues></_>
        <_>
          <internalNodes>
            0 -1 10 -5.3811825811862946e-02</internalNodes>
          <leafValues>
            -8.2989686727523804e-01 1.9071689248085022e-01</leafValues></_>
        <_>
          <internalNodes>
            0 -1 100 9.6042212098836899e-03</internalNodes>
          <leafValues>
            9.1010309755802155e-02 -8.4601867198944092e-01</leafValues></_>
        <_>
          <internalNodes>
            0 -1 82 -1.3764141127467155e-02</internalNodes>
          <leafValues>
            9.4081294536590576e-01 -1.4267340302467346e-01</leafValues></_>
        <_>
          <internalNodes>
            0 -1 48 6.5611680038273335e-03</internalNodes>
          <leafValues>
            -5.4522562026977539e-01 2.9659596085548401e-01</leafValues></_></weakClassifiers></_>
    <!-- stage 16 -->
    <_>
      <maxWeakCount>11</maxWeakCount>
      <stageThreshold>-9.6406644582748413e-01</stageThreshold>
      <weakClassifiers>
        <_>
          <internalNodes>
            0 -1 29 1.1733910068869591e-02</internalNodes>
          <leafValues>
            5.6203657388687134e-01 -3.5007384419441223e-01</leafValues></_>
        <_>
          <internalNodes>
            0 -1 0 5.8062467724084854e-03</internalNodes>
          <leafValues>
            -1.6706869006156921e-01 8.5332655906677246e-01</leafValues></_>
        <_>
          <internalNodes>
            0 -1 5 1.4028665423393250e-01</internalNodes>
          <leafValues>
            -6.0563087463378906e-01 3.2928308844566345e-01</leafValues></_>
        <_>
          <internalNodes>
            0 -1 92 9.4425503630191088e-04</internalNodes>
          <leafValues>
            -3.9054015278816223e-01 4.7225436568260193e-01</leafValues></_>
        <_>
          <internalNodes>
            0 -1 62 -9.7100930288434029e-03</internalNodes>
          <leafValues>
            6.9518095254898071e-01 -2.5354275107383728e-01</leafValues></_>
        <_>
          <internalNodes>
            0 -1 107 5.9750461950898170e-03</internalNodes>
          <leafValues>
            -4.6284601092338562e-01 3.9680901169776917e-01</leafValues></_>
        <_>
          <internalNodes>
            0 -1 12 3.1146042048931122e-02</internalNodes>
          <leafValues>
            1.9690568745136261e-01 -8.2402169704437256e-01</leafValues></_>
        <_>
          <internalNodes>
            0 -1 101 -1.9076664466410875e-04</internalNodes>
          <leafValues>
            -7.8158783912658691e-01 1.6742120683193207e-01</leafValues></_>
        <_>
          <internalNodes>
            0 -1 145 -3.7550942506641150e-03</internalNodes>
          <leafValues>
            -5.2288675308227539e-01 3.5559093952178955e-01</leafValues></_>
        <_>
          <internalNodes>
            0 -1 41 -8.3388073835521936e-04</internalNodes>
          <leafValues>
            7.5992274284362793e-01 -2.1585924923419952e-01</leafValues></_>
        <_>
          <internalNodes>
            0 -1 153 -3.6117956042289734e-03</internalNodes>
          <leafValues>
            8.8671535253524780e-01 -1.5053318440914154e-01</leafValues></_></weakClassifiers></_></stages>
  <features>
    <_>
      <rects>
        <_>
          2 0 10 2 -1.</_>
        <_>
          2 0 5 1 2.</_>
        <_>
          7 1 5 1 2.</_></rects>
      <tilted>0</tilted></_>
    <_>
      <rects>
        <_>
          3 8 3 2 -1.</_>
        <_>
          4 8 1 2 3.</_></rects>
      <tilted>0</tilted></_>
    <_>
      <rects>
        <_>
          3 9 3 1 -1.</_>
        <_>
          4 9 1 1 3.</_></rects>
      <tilted>0</tilted></_>
    <_>
      <rects>
        <_>
          3 9 15 1 -1.</_>
        <_>
          8 9 5 1 3.</_></rects>
      <tilted>0</tilted></_>
    <_>
      <rects>
        <_>
          3 10 3 2 -1.</_>
        <_>
          4 10 1 2 3.</_></rects>
      <tilted>0</tilted></_>
    <_>
      <rects>
        <_>
          4 6 12 8 -1.</_>
        <_>
          8 6 4 8 3.</_></rects>
      <tilted>0</tilted></_>
    <_>
      <rects>
        <_>
          4 7 3 2 -1.</_>
        <_>
          5 7 1 2 3.</_></rects>
      <tilted>0</tilted></_>
    <_>
      <rects>
        <_>
          4 7 6 8 -1.</_>
        <_>
          6 7 2 8 3.</_></rects>
      <tilted>0</tilted></_>
    <_>
      <rects>
        <_>
          4 8 8 6 -1.</_>
        <_>
          8 8 4 6 2.</_></rects>
      <tilted>0</tilted></_>
    <_>
      <rects>
        <_>
          4 8 12 6 -1.</_>
        <_>
          8 8 4 6 3.</_></rects>
      <tilted>0</tilted></_>
    <_>
      <rects>
        <_>
          4 8 12 4 -1.</_>
        <_>
          10 8 6 4 2.</_></rects>
      <tilted>0</tilted></_>
    <_>
      <rects>
        <_>
          4 9 2 2 -1.</_>
        <_>
          5 9 1 2 2.</_></rects>
      <tilted>0</tilted></_>
    <_>
      <rects>
        <_>
          4 9 11 3 -1.</_>
        <_>
          4 10 11 1 3.</_></rects>
      <tilted>0</tilted></_>
    <_>
      <rects>
        <_>
          4 10 2 2 -1.</_>
        <_>
          5 10 1 2 2.</_></rects>
      <tilted>0</tilted></_>
    <_>
      <rects>
        <_>
          4 10 2 3 -1.</_>
        <_>
          5 10 1 3 2.</_></rects>
      <tilted>0</tilted></_>
    <_>
      <rects>
        <_>
          4 10 12 2 -1.</_>
        <_>
          8 10 4 2 3.</_></rects>
      <tilted>0</tilted></_>
    <_>
      <rects>
        <_>
          4 12 3 2 -1.</_>
        <_>
          5 12 1 2 3.</_></rects>
      <tilted>0</tilted></_>
    <_>
      <rects>
        <_>
          4 14 12 1 -1.</_>
        <_>
          8 14 4 1 3.</_></rects>
      <tilted>0</tilted></_>
    <_>
      <rects>
        <_>
          4 18 7 2 -1.</_>
        <_>
          4 19 7 1 2.</_></rects>
      <tilted>0</tilted></_>
    <_>
      <rects>
        <_>
          5 3 2 15 -1.</_>
        <_>
          5 8 2 5 3.</_></rects>
      <tilted>0</tilted></_>
    <_>
      <rects>
        <_>
          5 5 2 15 -1.</_>
        <_>
          5 10 2 5 3.</_></rects>
      <tilted>0</tilted></_>
    <_>
      <rects>
        <_>
          5 6 2 9 -1.</_>
        <_>
          5 9 2 3 3.</_></rects>
      <tilted>0</tilted></_>
    <_>
      <rects>
        <_>
          5 8 2 3 -1.</_>
        <_>
          5 9 2 1 3.</_></rects>
      <tilted>0</tilted></_>
    <_>
      <rects>
        <_>
          5 8 8 3 -1.</_>
        <_>
          5 9 8 1 3.</_></rects>
      <tilted>0</tilted></_>
    <_>
      <rects>
        <_>
          5 9 2 3 -1.</_>
        <_>
          5 10 2 1 3.</_></rects>
      <tilted>0</tilted></_>
    <_>
      <rects>
        <_>
          5 9 8 3 -1.</_>
        <_>
          5 10 8 1 3.</_></rects>
      <tilted>0</tilted></_>
    <_>
      <rects>
        <_>
          5 10 7 3 -1.</_>
        <_>
          5 11 7 1 3.</_></rects>
      <tilted>0</tilted></_>
    <_>
      <rects>
        <_>
          5 10 9 3 -1.</_>
        <_>
          5 11 9 1 3.</_></rects>
      <tilted>0</tilted></_>
    <_>
      <rects>
        <_>
          5 10 10 3 -1.</_>
        <_>
          5 11 10 1 3.</_></rects>
      <tilted>0</tilted></_>
    <_>
      <rects>
        <_>
          5 11 10 4 -1.</_>
        <_>
          10 11 5 4 2.</_></rects>
      <tilted>0</tilted></_>
    <_>
      <rects>
        <_>
          5 13 6 2 -1.</_>
        <_>
          5 13 3 1 2.</_>
        <_>
          8 14 3 1 2.</_></rects>
      <tilted>0</tilted></_>
    <_>
      <rects>
        <_>
          6 2 7 18 -1.</_>
        <_>
          6 8 7 6 3.</_></rects>
      <tilted>0</tilted></_>
    <_>
      <rects>
        <_>
          6 7 4 9 -1.</_>
        <_>
          8 7 2 9 2.</_></rects>
      <tilted>0</tilted></_>
    <_>
      <rects>
        <_>
          6 7 7 6 -1.</_>
        <_>
          6 9 7 2 3.</_></rects>
      <tilted>0</tilted></_>
    <_>
      <rects>
        <_>
          6 8 1 3 -1.</_>
        <_>
          6 9 1 1 3.</_></rects>
      <tilted>0</tilted></_>
    <_>
      <rects>
        <_>
          6 9 7 3 -1.</_>
        <_>
          6 10 7 1 3.</_></rects>
      <tilted>0</tilted></_>
    <_>
      <rects>
        <_>
          6 10 1 3 -1.</_>
        <_>
          6 11 1 1 3.</_></rects>
      <tilted>0</tilted></_>
    <_>
      <rects>
        <_>
          6 11 6 1 -1.</_>
        <_>
          8 11 2 1 3.</_></rects>
      <tilted>0</tilted></_>
    <_>
      <rects>
        <_>
          6 12 2 4 -1.</_>
        <_>
          6 12 1 2 2.</_>
        <_>
          7 14 1 2 2.</_></rects>
      <tilted>0</tilted></_>
    <_>
      <rects>
        <_>
          7 0 5 3 -1.</_>
        <_>
          7 1 5 1 3.</_></rects>
      <tilted>0</tilted></_>
    <_>
      <rects>
        <_>
          7 0 6 2 -1.</_>
        <_>
          7 1 6 1 2.</_></rects>
      <tilted>0</tilted></_>
    <_>
      <rects>
        <_>
          7 1 1 2 -1.</_>
        <_>
          7 2 1 1 2.</_></rects>
      <tilted>0</tilted></_>
    <_>
      <rects>
        <_>
          7 7 6 6 -1.</_>
        <_>
          7 9 6 2 3.</_></rects>
      <tilted>0</tilted></_>
    <_>
      <rects>
        <_>
          7 8 2 6 -1.</_>
        <_>
          8 8 1 6 2.</_></rects>
      <tilted>0</tilted></_>
    <_>
      <rects>
        <_>
          7 9 3 4 -1.</_>
        <_>
          8 9 1 4 3.</_></rects>
      <tilted>0</tilted></_>
    <_>
      <rects>
        <_>
          7 9 8 7 -1.</_>
        <_>
          11 9 4 7 2.</_></rects>
      <tilted>0</tilted></_>
    <_>
      <rects>
        <_>
          7 9 6 3 -1.</_>
        <_>
          7 10 6 1 3.</_></rects>
      <tilted>0</tilted></_>
    <_>
      <rects>
        <_>
          7 9 12 4 -1.</_>
        <_>
          7 9 6 2 2.</_>
        <_>
          13 11 6 2 2.</_></rects>
      <tilted>0</tilted></_>
    <_>
      <rects>
        <_>
          7 9 7 3 -1.</_>
        <_>
          7 10 7 1 3.</_></rects>
      <tilted>0</tilted></_>
    <_>
      <rects>
        <_>
          7 10 3 1 -1.</_>
        <_>
          8 10 1 1 3.</_></rects>
      <tilted>0</tilted></_>
    <_>
      <rects>
        <_>
          7 10 2 2 -1.</_>
        <_>
          8 10 1 2 2.</_></rects>
      <tilted>0</tilted></_>
    <_>
      <rects>
        <_>
          7 10 3 2 -1.</_>
        <_>
          8 10 1 2 3.</_></rects>
      <tilted>0</tilted></_>
    <_>
      <rects>
        <_>
          7 10 6 2 -1.</_>
        <_>
          9 10 2 2 3.</_></rects>
      <tilted>0</tilted></_>
    <_>
      <rects>
        <_>
          7 10 6 3 -1.</_>
        <_>
          7 11 6 1 3.</_></rects>
      <tilted>0</tilted></_>
    <_>
      <rects>
        <_>
          7 11 6 3 -1.</_>
        <_>
          7 12 6 1 3.</_></rects>
      <tilted>0</tilted></_>
    <_>
      <rects>
        <_>
          7 12 6 2 -1.</_>
        <_>
          9 12 2 2 3.</_></rects>
      <tilted>0</tilted></_>
    <_>
      <rects>
        <_>
          8 1 5 9 -1.</_>
        <_>
          8 4 5 3 3.</_></rects>
      <tilted>0</tilted></_>
    <_>
      <rects>
        <_>
          8 2 4 18 -1.</_>
        <_>
          8 8 4 6 3.</_></rects>
      <tilted>0</tilted></_>
    <_>
      <rects>
        <_>
          8 2 5 3 -1.</_>
        <_>
          8 3 5 1 3.</_></rects>
      <tilted>0</tilted></_>
    <_>
      <rects>
        <_>
          8 5 2 9 -1.</_>
        <_>
          8 8 2 3 3.</_></rects>
      <tilted>0</tilted></_>
    <_>
      <rects>
        <_>
          8 5 4 9 -1.</_>
        <_>
          8 8 4 3 3.</_></rects>
      <tilted>0</tilted></_>
    <_>
      <rects>
        <_>
          8 6 4 6 -1.</_>
        <_>
          8 8 4 2 3.</_></rects>
      <tilted>0</tilted></_>
    <_>
      <rects>
        <_>
          8 6 5 3 -1.</_>
        <_>
          8 7 5 1 3.</_></rects>
      <tilted>0</tilted></_>
    <_>
      <rects>
        <_>
          8 7 3 6 -1.</_>
        <_>
          8 9 3 2 3.</_></rects>
      <tilted>0</tilted></_>
    <_>
      <rects>
        <_>
          8 7 4 9 -1.</_>
        <_>
          8 10 4 3 3.</_></rects>
      <tilted>0</tilted></_>
    <_>
      <rects>
        <_>
          8 7 5 2 -1.</_>
        <_>
          8 8 5 1 2.</_></rects>
      <tilted>0</tilted></_>
    <_>
      <rects>
        <_>
          8 7 5 6 -1.</_>
        <_>
          8 9 5 2 3.</_></rects>
      <tilted>0</tilted></_>
    <_>
      <rects>
        <_>
          8 8 2 9 -1.</_>
        <_>
          8 11 2 3 3.</_></rects>
      <tilted>0</tilted></_>
    <_>
      <rects>
        <_>
          8 8 6 5 -1.</_>
        <_>
          10 8 2 5 3.</_></rects>
      <tilted>0</tilted></_>
    <_>
      <rects>
        <_>
          8 8 4 6 -1.</_>
        <_>
          8 11 4 3 2.</_></rects>
      <tilted>0</tilted></_>
    <_>
      <rects>
        <_>
          8 8 4 9 -1.</_>
        <_>
          8 11 4 3 3.</_></rects>
      <tilted>0</tilted></_>
    <_>
      <rects>
        <_>
          8 8 8 6 -1.</_>
        <_>
          12 8 4 6 2.</_></rects>
      <tilted>0</tilted></_>
    <_>
      <rects>
        <_>
          8 9 2 2 -1.</_>
        <_>
          9 9 1 2 2.</_></rects>
      <tilted>0</tilted></_>
    <_>
      <rects>
        <_>
          8 9 1 6 -1.</_>
        <_>
          8 11 1 2 3.</_></rects>
      <tilted>0</tilted></_>
    <_>
      <rects>
        <_>
          8 9 2 4 -1.</_>
        <_>
          8 11 2 2 2.</_></rects>
      <tilted>0</tilted></_>
    <_>
      <rects>
        <_>
          8 9 3 6 -1.</_>
        <_>
          8 11 3 2 3.</_></rects>
      <tilted>0</tilted></_>
    <_>
      <rects>
        <_>
          8 9 4 6 -1.</_>
        <_>
          8 11 4 2 3.</_></rects>
      <tilted>0</tilted></_>
    <_>
      <rects>
        <_>
          8 9 5 6 -1.</_>
        <_>
          8 11 5 2 3.</_></rects>
      <tilted>0</tilted></_>
    <_>
      <rects>
        <_>
          8 10 2 1 -1.</_>
        <_>
          9 10 1 1 2.</_></rects>
      <tilted>0</tilted></_>
    <_>
      <rects>
        <_>
          8 10 3 2 -1.</_>
        <_>
          9 10 1 2 3.</_></rects>
      <tilted>0</tilted></_>
    <_>
      <rects>
        <_>
          8 10 3 3 -1.</_>
        <_>
          9 10 1 3 3.</_></rects>
      <tilted>0</tilted></_>
    <_>
      <rects>
        <_>
          8 10 4 6 -1.</_>
        <_>
          8 12 4 2 3.</_></rects>
      <tilted>0</tilted></_>
    <_>
      <rects>
        <_>
          8 10 8 4 -1.</_>
        <_>
          8 10 4 2 2.</_>
        <_>
          12 12 4 2 2.</_></rects>
      <tilted>0</tilted></_>
    <_>
      <rects>
        <_>
          8 10 5 3 -1.</_>
        <_>
          8 11 5 1 3.</_></rects>
      <tilted>0</tilted></_>
    <_>
      <rects>
        <_>
          8 10 5 6 -1.</_>
        <_>
          8 12 5 2 3.</_></rects>
      <tilted>0</tilted></_>
    <_>
      <rects>
        <_>
          8 11 2 1 -1.</_>
        <_>
          9 11 1 1 2.</_></rects>
      <tilted>0</tilted></_>
    <_>
      <rects>
        <_>
          8 11 3 1 -1.</_>
        <_>
          9 11 1 1 3.</_></rects>
      <tilted>0</tilted></_>
    <_>
      <rects>
        <_>
          8 11 4 2 -1.</_>
        <_>
          10 11 2 2 2.</_></rects>
      <tilted>0</tilted></_>
    <_>
      <rects>
        <_>
          8 11 5 3 -1.</_>
        <_>
          8 12 5 1 3.</_></rects>
      <tilted>0</tilted></_>
    <_>
      <rects>
        <_>
          8 12 4 1 -1.</_>
        <_>
          10 12 2 1 2.</_></rects>
      <tilted>0</tilted></_>
    <_>
      <rects>
        <_>
          8 12 4 2 -1.</_>
        <_>
          10 12 2 2 2.</_></rects>
      <tilted>0</tilted></_>
    <_>
      <rects>
        <_>
          8 12 4 4 -1.</_>
        <_>
          8 14 4 2 2.</_></rects>
      <tilted>0</tilted></_>
    <_>
      <rects>
        <_>
          8 13 3 1 -1.</_>
        <_>
          9 13 1 1 3.</_></rects>
      <tilted>0</tilted></_>
    <_>
      <rects>
        <_>
          9 0 2 2 -1.</_>
        <_>
          9 1 2 1 2.</_></rects>
      <tilted>0</tilted></_>
    <_>
      <rects>
        <_>
          9 1 3 2 -1.</_>
        <_>
          10 1 1 2 3.</_></rects>
      <tilted>0</tilted></_>
    <_>
      <rects>
        <_>
          9 5 3 12 -1.</_>
        <_>
          9 9 3 4 3.</_></rects>
      <tilted>0</tilted></_>
    <_>
      <rects>
        <_>
          9 7 3 3 -1.</_>
        <_>
          9 8 3 1 3.</_></rects>
      <tilted>0</tilted></_>
    <_>
      <rects>
        <_>
          9 7 3 6 -1.</_>
        <_>
          9 9 3 2 3.</_></rects>
      <tilted>0</tilted></_>
    <_>
      <rects>
        <_>
          9 7 4 3 -1.</_>
        <_>
          9 8 4 1 3.</_></rects>
      <tilted>0</tilted></_>
    <_>
      <rects>
        <_>
          9 7 4 6 -1.</_>
        <_>
          9 9 4 2 3.</_></rects>
      <tilted>0</tilted></_>
    <_>
      <rects>
        <_>
          9 8 3 4 -1.</_>
        <_>
          10 8 1 4 3.</_></rects>
      <tilted>0</tilted></_>
    <_>
      <rects>
        <_>
          9 9 3 2 -1.</_>
        <_>
          10 9 1 2 3.</_></rects>
      <tilted>0</tilted></_>
    <_>
      <rects>
        <_>
          9 9 4 4 -1.</_>
        <_>
          9 9 2 2 2.</_>
        <_>
          11 11 2 2 2.</_></rects>
      <tilted>0</tilted></_>
    <_>
      <rects>
        <_>
          9 10 2 1 -1.</_>
        <_>
          10 10 1 1 2.</_></rects>
      <tilted>0</tilted></_>
    <_>
      <rects>
        <_>
          9 10 3 2 -1.</_>
        <_>
          10 10 1 2 3.</_></rects>
      <tilted>0</tilted></_>
    <_>
      <rects>
        <_>
          9 10 3 3 -1.</_>
        <_>
          10 10 1 3 3.</_></rects>
      <tilted>0</tilted></_>
    <_>
      <rects>
        <_>
          9 10 3 6 -1.</_>
        <_>
          9 12 3 2 3.</_></rects>
      <tilted>0</tilted></_>
    <_>
      <rects>
        <_>
          9 10 4 3 -1.</_>
        <_>
          9 11 4 1 3.</_></rects>
      <tilted>0</tilted></_>
    <_>
      <rects>
        <_>
          9 11 2 1 -1.</_>
        <_>
          10 11 1 1 2.</_></rects>
      <tilted>0</tilted></_>
    <_>
      <rects>
        <_>
          9 11 3 1 -1.</_>
        <_>
          10 11 1 1 3.</_></rects>
      <tilted>0</tilted></_>
    <_>
      <rects>
        <_>
          9 11 2 2 -1.</_>
        <_>
          9 11 1 1 2.</_>
        <_>
          10 12 1 1 2.</_></rects>
      <tilted>0</tilted></_>
    <_>
      <rects>
        <_>
          9 11 2 2 -1.</_>
        <_>
          10 11 1 2 2.</_></rects>
      <tilted>0</tilted></_>
    <_>
      <rects>
        <_>
          9 12 2 1 -1.</_>
        <_>
          10 12 1 1 2.</_></rects>
      <tilted>0</tilted></_>
    <_>
      <rects>
        <_>
          9 12 4 2 -1.</_>
        <_>
          9 12 2 1 2.</_>
        <_>
          11 13 2 1 2.</_></rects>
      <tilted>0</tilted></_>
    <_>
      <rects>
        <_>
          10 1 1 2 -1.</_>
        <_>
          10 2 1 1 2.</_></rects>
      <tilted>0</tilted></_>
    <_>
      <rects>
        <_>
          10 7 3 7 -1.</_>
        <_>
          11 7 1 7 3.</_></rects>
      <tilted>0</tilted></_>
    <_>
      <rects>
        <_>
          10 8 2 2 -1.</_>
        <_>
          11 8 1 2 2.</_></rects>
      <tilted>0</tilted></_>
    <_>
      <rects>
        <_>
          10 8 3 5 -1.</_>
        <_>
          11 8 1 5 3.</_></rects>
      <tilted>0</tilted></_>
    <_>
      <rects>
        <_>
          10 8 3 3 -1.</_>
        <_>
          10 9 3 1 3.</_></rects>
      <tilted>0</tilted></_>
    <_>
      <rects>
        <_>
          10 9 2 1 -1.</_>
        <_>
          11 9 1 1 2.</_></rects>
      <tilted>0</tilted></_>
    <_>
      <rects>
        <_>
          10 9 3 3 -1.</_>
        <_>
          11 9 1 3 3.</_></rects>
      <tilted>0</tilted></_>
    <_>
      <rects>
        <_>
          10 9 3 3 -1.</_>
        <_>
          10 10 3 1 3.</_></rects>
      <tilted>0</tilted></_>
    <_>
      <rects>
        <_>
          10 9 6 3 -1.</_>
        <_>
          10 10 6 1 3.</_></rects>
      <tilted>0</tilted></_>
    <_>
      <rects>
        <_>
          10 10 2 1 -1.</_>
        <_>
          11 10 1 1 2.</_></rects>
      <tilted>0</tilted></_>
    <_>
      <rects>
        <_>
          10 10 3 1 -1.</_>
        <_>
          11 10 1 1 3.</_></rects>
      <tilted>0</tilted></_>
    <_>
      <rects>
        <_>
          10 10 6 1 -1.</_>
        <_>
          12 10 2 1 3.</_></rects>
      <tilted>0</tilted></_>
    <_>
      <rects>
        <_>
          10 10 3 3 -1.</_>
        <_>
          10 11 3 1 3.</_></rects>
      <tilted>0</tilted></_>
    <_>
      <rects>
        <_>
          10 11 2 1 -1.</_>
        <_>
          11 11 1 1 2.</_></rects>
      <tilted>0</tilted></_>
    <_>
      <rects>
        <_>
          11 1 2 18 -1.</_>
        <_>
          11 7 2 6 3.</_></rects>
      <tilted>0</tilted></_>
    <_>
      <rects>
        <_>
          11 8 4 5 -1.</_>
        <_>
          13 8 2 5 2.</_></rects>
      <tilted>0</tilted></_>
    <_>
      <rects>
        <_>
          11 9 1 6 -1.</_>
        <_>
          11 11 1 2 3.</_></rects>
      <tilted>0</tilted></_>
    <_>
      <rects>
        <_>
          11 10 1 3 -1.</_>
        <_>
          11 11 1 1 3.</_></rects>
      <tilted>0</tilted></_>
    <_>
      <rects>
        <_>
          12 7 4 6 -1.</_>
        <_>
          14 7 2 6 2.</_></rects>
      <tilted>0</tilted></_>
    <_>
      <rects>
        <_>
          12 9 2 4 -1.</_>
        <_>
          12 9 1 2 2.</_>
        <_>
          13 11 1 2 2.</_></rects>
      <tilted>0</tilted></_>
    <_>
      <rects>
        <_>
          12 10 3 2 -1.</_>
        <_>
          13 10 1 2 3.</_></rects>
      <tilted>0</tilted></_>
    <_>
      <rects>
        <_>
          12 13 3 1 -1.</_>
        <_>
          13 13 1 1 3.</_></rects>
      <tilted>0</tilted></_>
    <_>
      <rects>
        <_>
          12 15 3 1 -1.</_>
        <_>
          13 15 1 1 3.</_></rects>
      <tilted>0</tilted></_>
    <_>
      <rects>
        <_>
          13 8 3 4 -1.</_>
        <_>
          14 8 1 4 3.</_></rects>
      <tilted>0</tilted></_>
    <_>
      <rects>
        <_>
          13 9 3 1 -1.</_>
        <_>
          14 9 1 1 3.</_></rects>
      <tilted>0</tilted></_>
    <_>
      <rects>
        <_>
          13 9 3 2 -1.</_>
        <_>
          14 9 1 2 3.</_></rects>
      <tilted>0</tilted></_>
    <_>
      <rects>
        <_>
          13 9 2 3 -1.</_>
        <_>
          14 9 1 3 2.</_></rects>
      <tilted>0</tilted></_>
    <_>
      <rects>
        <_>
          13 9 3 3 -1.</_>
        <_>
          14 9 1 3 3.</_></rects>
      <tilted>0</tilted></_>
    <_>
      <rects>
        <_>
          13 9 2 3 -1.</_>
        <_>
          13 10 2 1 3.</_></rects>
      <tilted>0</tilted></_>
    <_>
      <rects>
        <_>
          13 10 3 1 -1.</_>
        <_>
          14 10 1 1 3.</_></rects>
      <tilted>0</tilted></_>
    <_>
      <rects>
        <_>
          13 10 3 3 -1.</_>
        <_>
          14 10 1 3 3.</_></rects>
      <tilted>0</tilted></_>
    <_>
      <rects>
        <_>
          14 2 1 18 -1.</_>
        <_>
          14 8 1 6 3.</_></rects>
      <tilted>0</tilted></_>
    <_>
      <rects>
        <_>
          14 4 1 12 -1.</_>
        <_>
          14 8 1 4 3.</_></rects>
      <tilted>0</tilted></_>
    <_>
      <rects>
        <_>
          14 8 3 1 -1.</_>
        <_>
          15 8 1 1 3.</_></rects>
      <tilted>0</tilted></_>
    <_>
      <rects>
        <_>
          14 9 1 3 -1.</_>
        <_>
          14 10 1 1 3.</_></rects>
      <tilted>0</tilted></_>
    <_>
      <rects>
        <_>
          14 9 3 3 -1.</_>
        <_>
          15 9 1 3 3.</_></rects>
      <tilted>0</tilted></_>
    <_>
      <rects>
        <_>
          14 9 2 3 -1.</_>
        <_>
          14 10 2 1 3.</_></rects>
      <tilted>0</tilted></_>
    <_>
      <rects>
        <_>
          14 10 3 1 -1.</_>
        <_>
          15 10 1 1 3.</_></rects>
      <tilted>0</tilted></_>
    <_>
      <rects>
        <_>
          14 10 3 2 -1.</_>
        <_>
          15 10 1 2 3.</_></rects>
      <tilted>0</tilted></_>
    <_>
      <rects>
        <_>
          15 7 2 3 -1.</_>
        <_>
          16 7 1 3 2.</_></rects>
      <tilted>0</tilted></_></features></cascade>
</opencv_storage>
